[{'W': array([[27.61684529],
       [ 2.23428164],
       [11.76363684],
       [43.58703513],
       [-0.51084994],
       [-0.12501291],
       [-0.62236901],
       [-0.43613437],
       [10.90390805],
       [-0.28662905]]), 'b': array([[-28.04616826],
       [ -4.06368448],
       [  8.71883511],
       [-10.44372722],
       [ -1.16234762],
       [ -2.2109344 ],
       [ -1.07328564],
       [ -0.75182125],
       [  8.11271754],
       [ -0.50060809]])}, {'W': array([[ 2.63616853e-01, -2.27224436e-01, -9.92729591e-01,
        -1.03710660e+00,  8.38894547e-01, -1.15899108e+00,
        -1.13637535e-01, -6.75075020e-01, -3.64985689e-01,
         7.80124007e-01],
       [-1.24062431e-01,  2.30608409e-01,  3.55254821e-01,
        -7.70611927e-02, -2.62026529e-01, -7.74642771e-01,
         2.85380491e-01, -5.41649766e-01, -4.47497682e-01,
        -3.83782087e-01],
       [-7.78012777e-03,  6.11426943e-02, -2.25576746e-02,
        -2.31912495e-01, -5.08730279e-01, -1.56816935e-01,
        -2.82796205e-01, -9.58043025e-01, -1.07347133e+00,
        -1.06592645e-01],
       [-1.54964512e-01, -8.29163404e-02, -4.48931248e-01,
        -2.76537372e-01,  3.41221076e-01, -3.77039524e-01,
        -3.44634771e-01, -1.08058377e+00, -8.92817771e-01,
        -1.20563023e-02],
       [-3.97045127e-01, -3.62526315e-01,  8.37250254e+00,
        -2.21180449e+01,  2.22124671e-03, -2.94627198e-01,
        -6.26530055e-03, -1.23608650e-05, -9.03265823e+00,
        -5.01140830e-03],
       [-8.91748480e-01, -4.62317037e-01, -1.31019782e+00,
        -1.57694669e+00, -2.16896321e-01,  3.68978648e-01,
         5.13072554e-01, -5.09286569e+00, -1.87954209e+00,
        -7.56706126e-01],
       [-4.46700870e-01, -4.76248133e-01, -1.43344524e+00,
        -1.56226281e+00,  2.28841923e-01, -3.47817507e-01,
        -6.58857283e-01, -4.07171349e-01, -1.59462792e-01,
         1.21440002e-01],
       [ 8.39380769e-02,  7.11588966e-02, -3.03256352e-01,
        -7.29114370e-02,  4.34043131e-01, -5.59887438e-01,
        -1.04921394e-01, -3.69617556e-02, -7.73531248e-01,
        -2.09252198e-01],
       [-9.27361247e-02, -2.28066211e-01, -5.57461440e-01,
        -1.68320123e+00, -1.00504114e+00,  9.77485092e-02,
         4.47582203e-01, -3.88354696e-01, -1.43493627e+00,
        -2.38640347e-01],
       [ 1.56318907e+02,  5.38692060e-01, -2.24085593e+01,
         2.40829099e+00, -2.79659398e-01, -1.12573657e+00,
        -1.40502330e-02, -7.00549447e-01, -1.91287558e+01,
        -6.51984191e-01]]), 'b': array([[ -0.7098897 ],
       [ -0.32824411],
       [ -1.56408317],
       [ -0.27807139],
       [  0.56177176],
       [ -1.77077442],
       [ -0.14608643],
       [ -0.28643508],
       [ -0.45006631],
       [-68.19736976]])}, {'W': array([[ 0.4515476 , -0.50855691, -0.96528403, -0.67189915, -1.51269001,
         0.00688905, -0.60137327,  0.2472845 , -0.15216542, -0.00773881],
       [-0.39973862,  0.20244224, -0.64331387, -0.23392379, -0.20095506,
        -1.13358456, -0.69259417,  0.30216957,  0.27111257, -0.11932593],
       [-0.05750201, -0.00614494, -0.19453553, -0.27673791, -0.29227273,
        -0.73896374,  0.19183784,  0.83437045, -0.5274214 , -0.32167079],
       [-0.19701065,  0.14413544, -0.30702274, -0.39219873, -1.5084431 ,
         0.25473676, -0.06812641,  0.17941538, -0.02854091, -0.44619739],
       [-0.27259674, -1.08193485,  0.66219175,  0.17220658, -0.36545293,
        -0.26994939,  0.20936744,  0.38632638, -0.19997657, -0.07804683],
       [ 0.50772985, -0.39544011, -0.21989219,  0.50223381, -0.38654118,
        -0.51597291,  0.29860802, -0.54981279, -0.83525057, -0.83603014],
       [-0.05838126, -0.16519356, -0.15823839,  0.46014597, -0.30887218,
        -0.69806635, -0.11388053, -0.47608575,  0.17025502, -0.7045369 ],
       [ 0.099589  ,  0.92879664, -0.13757491,  0.1986467 , -0.52335504,
        -0.81222396, -0.86677091, -0.02993657, -0.02761825, -0.38444763],
       [-0.21367153,  0.49248134,  0.98558059, -0.17246323,  4.06604788,
        -1.53085702, -0.15504385, -0.51058815,  0.18743425, -0.56684232],
       [ 0.20878435, -0.26188532, -0.02216393, -0.57136869, -0.34586961,
        -0.55661994,  0.46381216,  0.19440828,  0.17170098, -0.93110556]]), 'b': array([[-45.95150716],
       [ -0.34189921],
       [ -0.40154071],
       [ -1.96358232],
       [ -0.2159128 ],
       [ -0.26748162],
       [ -0.28194845],
       [ -1.7807889 ],
       [  1.76194251],
       [ -0.26289791]])}, {'W': array([[-0.29496482, -0.12140087,  0.04251907,  0.3506199 , -0.37836154,
        -0.3533356 , -0.42724257, -0.51269373, -0.17317383, -1.21804126],
       [-1.37127062,  0.67810275, -0.17994953, -0.36326775, -0.36947872,
         0.58857966,  0.16743684, -1.01936888, -1.48848303,  0.60710346],
       [-0.48347701, -0.09021595, -0.21045528,  0.81502672, -0.40614878,
        -0.07211967, -0.061157  , -0.52919261, -0.1941128 ,  0.21025914],
       [-0.70558955,  0.09489319, -0.25838112, -0.46906089, -0.35725438,
         0.44989656,  0.68415979, -0.25518066, -1.79823361, -0.71203015],
       [-0.01811257,  0.27723404, -0.66665249,  0.281231  ,  0.35562558,
         0.08061661, -0.21657318, -0.29212632, -0.76206871, -0.15925847],
       [-2.49576386,  0.72219503,  0.01379115,  0.14424735,  0.17427412,
         0.48853423,  0.63435516, -0.90392105, -0.1741295 ,  0.5065152 ],
       [-0.04580081,  0.50289146,  0.43357332,  0.3408645 ,  0.0126564 ,
         0.02544329, -0.02621771, -0.19678262, -0.9418765 ,  0.17767824],
       [-0.71317747,  0.02455039,  0.54031398, -0.20465403,  0.19522432,
        -1.2821581 , -0.51553591, -0.89084663, -1.48720096, -1.40787247],
       [-0.86814076, -0.45966893, -0.01335688,  0.4163166 , -0.05245149,
        -0.58898842,  0.42408365,  1.05466437, -0.71108166,  0.49508615],
       [-0.36331435,  1.27902174,  0.04462447,  0.71023844, -0.25952631,
         0.12431031,  0.75466215, -0.11123856,  0.94356827,  0.49053976]]), 'b': array([[-2.69694882e-01],
       [-1.43890298e+00],
       [-5.56566672e-01],
       [-2.97086145e-03],
       [-7.69509097e-02],
       [-3.39639360e-04],
       [-3.71561895e-01],
       [-2.07402893e+00],
       [-3.11319611e+00],
       [-5.84830288e-01]])}, {'W': array([[-0.15871446, -1.3201841 , -0.20526543,  0.00485834, -0.02217189,
        -0.00541613, -0.06231965,  1.4831698 , -0.00368298, -0.8983253 ]]), 'b': array([[1.6517209]])}]