[{'W': array([[ 2.3762045 ],
       [ 1.42685036],
       [ 1.51890472],
       [-2.06661956],
       [-1.46821622],
       [-1.8941714 ],
       [-1.55314719],
       [ 3.11865721],
       [ 1.17460731],
       [-1.22481611],
       [-1.00630136],
       [ 0.96588823],
       [-1.19501008],
       [-0.90069646],
       [ 0.41734751],
       [-0.92599603]]), 'b': array([[ 0.7397042 ],
       [-0.53228911],
       [-0.63915078],
       [-0.81079725],
       [-0.6406529 ],
       [ 0.07926191],
       [ 1.93504554],
       [-1.24693206],
       [-0.39693946],
       [ 0.68530347],
       [-0.74766546],
       [-0.95749038],
       [-0.25402124],
       [ 0.39166443],
       [ 0.02403919],
       [ 0.25250775]])}, {'W': array([[ 0.16565121,  0.02618793,  0.40352199, -0.47140421,  0.03440292,
         0.20331863, -0.19351709,  0.02030354,  1.10249683, -0.24302659,
         0.05773878, -0.18511766, -0.49997087, -0.01242249,  0.31276296,
         0.07214326],
       [ 0.15757059, -0.46229023,  0.14223022,  0.27029388,  0.71176171,
         0.7815871 , -0.11221143,  0.2821714 , -0.18018316, -0.48621727,
        -0.27911779,  0.10353573,  0.38229224,  0.63298888,  0.15678892,
        -0.13069388],
       [-0.30024373, -0.09647553, -0.09352723,  0.37786503,  0.19449007,
        -0.68687041,  0.63221185, -0.26927517, -0.17507495, -0.65224306,
        -0.03595746, -0.15167961, -0.22783111, -0.26467208,  0.52309828,
         0.2357185 ],
       [-0.84923548, -0.14381204, -0.07997276, -0.16294446,  0.36598132,
        -0.2049212 ,  0.90693547,  0.06573672,  0.0711147 , -0.19002771,
         0.08303292, -0.20324801, -0.30017776, -0.03511584, -0.10582232,
         0.00233103],
       [-0.03193853,  0.12829411, -0.63384358,  0.66527445,  0.95345552,
         0.53696618, -0.57287392, -0.00696665, -0.06918704,  0.08489338,
         0.64651622, -0.14004917,  0.48477679, -0.54279145,  0.25999178,
         0.36319253],
       [ 0.43068042, -0.44366756,  0.12413028, -0.08808799, -0.07696234,
        -0.35398331,  0.3620233 , -0.64786673, -0.35490081,  0.1225662 ,
         0.49068709,  0.21677987,  0.02271376, -0.43631703,  0.0428425 ,
         0.17180897],
       [ 0.72633573, -0.83091436,  0.21561518,  1.52908529,  0.77774722,
         0.54888241, -1.25966785,  0.19771303, -0.04780069,  0.08128535,
         0.62007865,  0.53333115,  0.55582558, -0.03350145,  0.48262373,
         0.3682439 ],
       [-0.13441266,  0.03198697,  0.53804314,  0.13561701, -0.08672034,
        -0.50270138,  0.18832592,  0.00348309, -0.37174923,  0.12217052,
        -0.39944108,  0.60632055,  0.24535226,  0.29425259,  0.08551196,
        -0.13792384],
       [ 0.14313681,  0.12984217,  0.1227719 , -0.72021149, -0.58196351,
        -0.19315261,  0.35799645,  0.27440548, -0.55283686,  0.28750453,
         0.56390241,  0.26948472, -0.04468174,  0.36486993, -0.0109789 ,
        -0.42234951],
       [ 0.11895257, -0.69481523,  0.20525221, -0.07700653,  0.29439262,
        -1.19965448,  0.47596087, -0.09507867,  0.15251363,  0.45753835,
         0.06637966,  0.52340553,  0.17139463, -0.45383363,  0.34814657,
        -0.48844995],
       [-0.41979084,  1.01133845,  0.22177284, -0.26941709, -0.2519528 ,
        -0.22277152,  0.99465409,  0.41194254,  0.34148018, -0.61670692,
        -0.04392043,  0.21834287, -0.12372578, -0.47808938,  0.31682691,
        -0.36460605],
       [ 0.21032476, -0.10547961, -0.07220555, -0.2655987 , -0.03501395,
        -0.20769283,  1.27245399, -0.29214075,  0.16392925, -0.30972255,
         0.01435982, -0.31671941, -0.23821157, -0.1681048 ,  0.0331364 ,
        -0.58809319],
       [ 1.04860612, -0.46856742, -0.62748868,  0.37288219,  0.18729545,
         0.64839687, -1.14954773, -1.10873208, -0.1614236 ,  0.70170634,
        -0.45885074, -0.89534447, -0.00613228,  0.16837047, -0.00577814,
         0.95516829],
       [ 0.37239172,  0.20888486, -0.14978415, -0.24824879, -0.41745535,
        -0.61730371,  0.7729189 , -0.26030433, -0.4530272 , -0.67496492,
        -0.22059677,  0.06690118, -0.19748524, -0.15638575,  0.23730161,
        -0.02330283],
       [ 0.71129879, -0.22539321, -0.49293415, -0.08793865, -0.48060797,
        -0.82796195,  0.71061421, -0.80005492, -0.2060275 , -0.71419146,
         0.2396809 , -0.7917636 ,  0.1368648 , -0.63297383,  0.02782555,
        -0.31907249],
       [-0.15240774,  0.01784192, -0.53102839, -0.30583849, -0.10898653,
         0.18600373,  0.06092154, -0.25849194, -0.08747952, -0.07602335,
         0.55731483,  0.59691994, -0.20278527, -0.23722947, -0.61932527,
        -0.01548541]]), 'b': array([[ 0.03259331],
       [-0.06086214],
       [-0.11453323],
       [ 0.10123359],
       [-0.50979443],
       [ 0.38338228],
       [-0.34729459],
       [-0.02414134],
       [ 0.42200162],
       [-0.04429742],
       [-0.68697148],
       [ 0.51485237],
       [ 1.2266327 ],
       [ 0.15332015],
       [ 0.60608577],
       [-0.00330462]])}, {'W': array([[-0.09537322, -0.13267474,  0.13065137, -0.18771794, -0.19907503,
        -0.20760822, -0.57873455, -0.05533395, -0.1379857 , -0.11967906,
         0.26184889, -0.67563215,  0.13026166, -0.57442184,  0.11437925,
        -0.10398675],
       [ 0.37151039, -0.68994976, -0.68072047, -0.74299434, -0.6478804 ,
        -0.32182728, -0.22358137,  0.53783732,  0.06369367,  0.01872175,
         0.18177945,  0.04303937, -0.84442606,  0.19349621,  1.1391654 ,
         0.08045327],
       [ 0.05107557, -0.22551303, -0.06077221,  0.49072577, -0.17090642,
        -0.1148311 ,  0.09319308, -0.18197005, -0.37492258,  0.24527923,
         0.09576824, -0.36171114, -0.23305382, -0.02766995,  0.41226853,
         0.17258626],
       [ 0.34486042, -0.71373974, -0.08883971, -0.16690072,  0.11728884,
        -0.44604418,  0.63535688,  0.00487191, -0.22313873, -0.45735288,
        -0.22588982, -0.81267608,  1.19852447, -0.24897596, -0.85315961,
        -0.06202118],
       [-0.12115105, -0.2199972 , -0.20153203,  0.76639931,  0.00934941,
        -0.28953424, -0.58730195,  0.12626116,  0.23866278,  0.06836973,
         1.18717343, -0.11471244,  0.45718506, -0.34301388,  0.54651795,
        -0.02193926],
       [-0.55751322,  0.30575317, -0.01062052,  0.28442188, -0.78883905,
        -0.0503319 , -0.86644507, -0.28606086, -0.46212366,  0.15342709,
        -0.17861968,  0.16855131,  1.01622575, -0.44075664, -0.34048803,
        -0.29458281],
       [-0.12206081, -0.46873245,  0.43583999, -0.48109885, -0.19698444,
         0.13242389, -0.12645966, -0.71851496, -0.20399861,  0.14646634,
        -0.63553466,  0.39035988, -0.92965011,  0.10497584,  0.72289808,
         0.10266048],
       [-0.30153063, -0.10327008, -1.12750371, -0.5151181 ,  0.12371089,
        -0.03182578,  0.14929677,  0.26179052, -0.4659366 , -0.68306947,
         0.80103336,  0.11336432,  0.44581689, -0.25339197, -0.13967377,
        -0.06828613],
       [-0.8000614 , -0.85447004,  0.12412878, -0.07975309, -0.22506529,
         0.38498942, -0.32504379,  0.07004498, -0.16503974, -0.00689934,
        -0.29877114,  0.02520512, -0.52833543, -0.05221847,  0.37647487,
         0.36021256],
       [-0.55250917,  0.02431178, -0.08924624,  0.56165042, -0.51031548,
         0.19674169, -1.33480074,  0.20073383, -0.02523196, -0.16780139,
         0.39922273,  0.37010154,  0.62873326, -0.006877  , -0.1288127 ,
         0.22617705],
       [ 0.24387781, -0.12253146,  0.03088426, -0.36904981, -0.0788356 ,
        -0.62672294,  0.06306794, -0.13422916,  0.03671758, -0.28510189,
         0.11462021,  0.18545359, -1.52586245, -0.02834097,  1.20235427,
         0.52498423],
       [-0.09926931,  0.7151189 , -0.04627465, -0.16000904, -0.36856593,
        -0.13550032, -0.27650305,  0.34414026, -0.51987977,  0.14242995,
        -0.59268826,  0.16926783,  0.38281926, -0.12443959, -0.03685569,
         0.19607909],
       [ 0.04461325, -0.48358474,  0.00471988,  0.19458181,  0.09504972,
         0.22991084, -0.99858787,  0.09165602, -0.04506857,  0.33771965,
         0.16166215,  0.57783629,  0.0327154 , -0.29398798, -0.15084672,
         0.33655088],
       [-1.05866867, -0.31715211,  0.0434927 ,  0.05627577, -0.02152849,
        -0.07029249, -0.26856483,  0.50277437, -0.95576074, -0.40363286,
        -0.82594474,  0.99233894, -0.00958274, -0.22090326,  0.13235679,
        -0.13426325],
       [-0.45418547, -0.54913682, -0.14559341, -0.34993569, -0.15067452,
        -0.0062955 ,  0.45071966,  0.51710597, -0.47295049,  0.30769276,
        -0.35608382,  0.68349843,  0.2820397 , -0.52452827,  0.25174702,
         0.5514954 ],
       [-0.56465641, -0.36647912, -0.35705024, -0.3689123 ,  1.12454995,
        -0.25412755,  0.32279028, -0.18195481, -0.07416008, -0.36814006,
         0.13509503,  0.55346126,  0.22979491, -0.10301765, -0.26591307,
         0.64916464]]), 'b': array([[ 0.01146348],
       [ 0.00964459],
       [ 0.00048222],
       [-0.44080868],
       [-0.29851241],
       [-0.0138773 ],
       [ 0.04353328],
       [-0.09688884],
       [ 0.07250972],
       [ 0.38706238],
       [ 0.09094658],
       [-0.04542128],
       [ 0.18013744],
       [ 0.06752298],
       [-0.08340667],
       [ 0.04296756]])}, {'W': array([[ 0.34775   ,  0.88798556,  0.04794567, -1.02114452, -1.05672585,
        -0.96072826, -1.23998561, -0.59249237, -1.3333364 ,  1.36033703,
         1.10953746, -0.20825083, -0.65007995, -0.89140561, -0.24355548,
         0.49098737]]), 'b': array([[0.2353325]])}]