[{'W': array([[ 0.76277041],
       [-0.63132558],
       [-0.5566601 ],
       [ 2.41361663],
       [ 0.67235685],
       [ 1.75437434],
       [ 0.67902835],
       [-0.44393649],
       [-2.07960344],
       [ 1.41532842],
       [-2.33798769],
       [-0.88548234],
       [ 0.90738008],
       [ 0.64098757],
       [ 0.60138436],
       [ 0.52709102]]), 'b': array([[-0.03552168],
       [ 0.76100675],
       [-0.35184621],
       [-0.71661294],
       [ 0.54392336],
       [ 0.64786405],
       [-0.24702638],
       [ 0.02460395],
       [-0.44568056],
       [ 0.0595086 ],
       [-0.24490173],
       [ 0.15335051],
       [-0.42526484],
       [ 0.4043859 ],
       [-0.72493087],
       [-0.26554004]])}, {'W': array([[-0.34830742,  0.43024378, -0.27470442, -0.05981208,  0.13841459,
        -0.58008145, -0.08298518,  0.018369  , -0.49100542, -0.18512134,
         0.52665976, -0.1074625 ,  0.13379746, -0.39239851,  0.15668038,
         0.44112809],
       [-0.115892  ,  0.39611914,  0.20209697, -0.78539371, -0.1909444 ,
         0.33503252,  0.05480245,  0.18779438,  0.46572311, -0.49915108,
        -0.36885487,  0.23735275, -0.30793303,  0.03694403, -0.19653187,
         0.18198032],
       [ 0.3611365 ,  0.31488682, -0.30504911, -0.60216283,  0.32410678,
         0.09068289, -0.3750488 ,  0.19516898,  0.17415574,  0.03032112,
         0.02680477, -0.33456028, -0.51358974,  0.73536315, -0.05164415,
         0.04399172],
       [ 0.08415812,  0.18887031, -0.1800157 , -0.3218879 ,  0.0370341 ,
        -0.3962101 ,  0.68455785,  0.14621882, -0.00457649,  0.03777701,
         0.00211812,  0.01746116, -0.6416457 ,  0.50604158,  0.35627853,
         0.35213222],
       [ 0.69983111,  1.10010593, -0.16056139,  1.16695315,  0.2302759 ,
        -0.64652586,  0.26274738,  0.31518207,  0.10503743,  0.49965657,
         0.17178872,  0.00421597,  0.37144085, -0.30789629,  0.84468563,
         0.34789702],
       [ 0.31167157, -0.15292376,  0.07760128, -0.36266976,  0.00435027,
         0.6240826 , -0.07996051,  0.45749277, -0.66804435, -0.16147369,
         0.39232572,  0.26579053,  0.00639213,  0.43226112, -0.30012273,
        -0.26822476],
       [ 0.49628509,  0.46225099,  0.02828771,  0.37842268,  0.93580437,
         0.27308227, -0.14232197, -0.36882816, -0.84398223,  0.22065974,
        -0.08166218,  0.57299056,  0.16576266, -0.2768464 , -0.24032855,
        -0.17706569],
       [ 0.29778306,  0.35413763,  0.34557014,  0.13099094, -0.09504706,
        -0.59979754, -0.08069684,  0.6270736 , -0.37993856,  0.07347689,
         0.19800427,  0.01899642, -0.33367404,  0.34354238, -0.84572763,
        -0.1625191 ],
       [ 0.26052028, -0.08911539,  0.14167479, -0.66192127,  0.05657583,
        -0.4337248 , -0.20907201, -0.90227425, -0.08108631, -0.06911108,
         0.33622582,  0.51247623,  0.38714431,  0.41482668,  0.556975  ,
        -0.14682332],
       [-0.04810331,  0.27778577,  0.10895911, -0.71075591,  0.55480139,
         0.65609818, -0.15726281,  0.25920499, -0.1056125 , -0.27287672,
         0.19550673, -0.04690184, -0.04461914, -0.32692935,  0.2848629 ,
         0.46090616],
       [-0.06860693,  0.44876494,  0.30637693,  0.19866134,  0.50974129,
        -0.47756893,  0.1150436 , -0.33499709, -0.16182138,  0.18027468,
         0.00704431, -0.28271565, -0.08022384, -0.01420695, -0.16534838,
        -0.03414928],
       [-0.16144256,  0.24746199, -0.31623208,  0.00654602, -0.25596318,
         0.63633732, -0.19424382,  0.28277562,  0.26356205, -0.05380783,
        -0.64800772, -0.03502573,  0.22387438, -0.2485484 , -0.10059712,
         0.11643719],
       [-0.57520755,  0.72065674,  0.28680126, -0.70078992,  0.29109834,
         0.68206064,  0.13536291,  0.15461556,  0.25387817,  0.07051446,
         0.11756744,  0.14424362, -0.53337795,  0.36985147,  0.38180364,
        -0.45695297],
       [ 0.10310748, -0.31472908,  0.27337758,  0.275597  ,  0.18764875,
         0.22733834,  0.16070497,  0.14894096,  0.19918198,  0.78264909,
         0.08705714, -0.35917342, -0.35011804,  0.02471183, -0.27425782,
         0.16778763],
       [-0.91763811, -0.04589193, -0.36211626,  1.17276448,  0.07303155,
         0.41545335,  0.10491319,  0.14899683, -0.00521329, -0.40285816,
        -0.1674547 ,  0.02557562, -0.32717185, -0.09878128, -0.46813016,
        -0.17577862],
       [ 0.46797943,  0.10096152,  0.67432405, -0.81609537, -0.54721233,
        -0.14221083, -0.25912903, -0.47665966,  0.42341648,  0.07334991,
         0.25481481, -0.205695  , -0.28920422,  0.77158836, -0.28482349,
        -0.16856415]]), 'b': array([[ 0.00130906],
       [-0.0924083 ],
       [-0.06603196],
       [-0.00673415],
       [-0.27109627],
       [ 0.49956066],
       [ 0.2239256 ],
       [-0.03743305],
       [-0.16510307],
       [ 0.17556239],
       [-0.14599035],
       [-0.06664436],
       [ 0.24696508],
       [ 0.41547377],
       [-0.11488735],
       [ 0.0315046 ]])}, {'W': array([[-3.53785315e-01,  4.42281709e-02, -3.20118125e-01,
        -1.06751184e-01, -3.86013905e-01,  3.21129965e-01,
        -5.92252050e-03,  5.35548514e-01, -1.48795914e-01,
        -5.49658625e-02, -4.49064225e-01,  2.72014249e-01,
         6.71322639e-01,  7.15416568e-02,  3.08048610e-01,
         1.79932228e-01],
       [-3.54943734e-01,  3.10078104e-01, -1.60870231e-02,
        -1.95899181e-01, -8.57133765e-02,  5.07423802e-01,
        -1.03308740e-01,  3.78643813e-01, -3.46253911e-01,
        -4.60207320e-01, -5.75954611e-01, -9.23859842e-02,
        -2.05651561e-01,  3.10899014e-01, -2.67556026e-01,
         2.38177237e-01],
       [-2.75887733e-01, -3.95918907e-01, -4.06215623e-02,
         3.95163781e-02,  1.73524716e-01,  1.66395673e-02,
        -6.67363183e-01,  1.20851787e-01,  2.74774442e-01,
         3.09177395e-01,  1.96461263e-02,  2.74662032e-01,
         7.01445073e-01, -5.50973382e-01, -1.22552625e+00,
         5.74538509e-01],
       [-4.20484978e-01,  5.50302586e-01,  4.53974091e-01,
         3.24278723e-01, -2.04853671e-01,  3.31542635e-01,
        -8.72309380e-02,  4.43119209e-01,  6.57399874e-01,
        -1.19859611e-01,  2.30079319e-01, -5.08501441e-01,
         4.14658301e-02, -2.31669971e-01, -2.36134650e-01,
        -2.76137103e-01],
       [-2.18513821e-01, -1.18476459e-01, -4.47937129e-02,
        -4.85271817e-02,  1.91943436e-01, -1.41288571e-01,
        -8.83624610e-01,  1.34107916e-01,  2.99267492e-01,
         1.74067907e-01,  5.52058713e-01, -3.58685400e-02,
         5.54637576e-02,  1.04641814e-01, -4.61008300e-01,
        -4.51143689e-02],
       [-8.33335428e-03,  3.36249519e-01, -3.27533499e-01,
        -4.45877270e-01, -4.82820777e-01,  2.19210675e-01,
         7.27222692e-02, -3.58527116e-01, -4.31181274e-01,
         3.91154199e-01,  1.72358173e-01, -4.58441574e-01,
         7.46015200e-02, -3.09317260e-01, -1.67221656e-01,
         1.10072121e-03],
       [ 1.30135020e-01, -3.09814510e-01, -1.17806600e-01,
        -6.56063390e-01, -2.26904900e-02, -4.43882050e-01,
         2.08708900e-02, -2.84015000e-03, -2.12853970e-01,
         1.38590710e-01,  5.00043140e-01,  1.68723950e-01,
        -1.61302530e-01,  2.21749410e-01, -3.05209010e-01,
        -3.93126300e-02],
       [-1.01058990e-01,  1.24672840e-01,  2.30800883e-01,
         3.87169360e-01,  1.43354511e-01,  2.88606892e-01,
        -2.72716024e-01, -4.43188770e-01,  8.86002670e-01,
        -3.33265600e-01, -1.47529594e+00, -1.33251993e-01,
        -4.66477347e-01,  1.00377683e-01,  1.77941632e-01,
         1.46459440e-01],
       [-9.52037846e-02,  1.97881505e-01,  2.47484283e-01,
        -6.87163527e-02, -3.92379410e-01,  2.98610073e-01,
        -1.26385295e-01,  2.72437086e-01,  4.01371906e-01,
        -2.76453396e-01,  5.13791589e-01, -4.51367372e-01,
         1.02717585e-01, -1.14934909e-01,  2.16666196e-01,
         2.02210691e-01],
       [-6.85097906e-01,  1.85613682e-01,  2.17069632e-02,
        -3.49137615e-02, -4.99483972e-01,  1.90309495e-01,
        -5.66236419e-02,  4.55933196e-01, -2.25456364e-01,
         3.88865019e-01,  2.55618689e-02, -6.22293859e-01,
         1.48725500e-01, -6.08725723e-01,  3.04557340e-01,
         5.09895197e-01],
       [-3.06037880e-01, -1.02947450e-01,  3.17433494e-01,
        -8.49231838e-02,  1.08958509e+00, -3.95154218e-01,
         6.98478962e-01, -1.80476138e-01,  2.53492492e-03,
         2.46039097e-01, -1.03612673e+00,  4.36408360e-01,
         9.64596275e-01, -5.71343872e-01, -1.68269226e-03,
        -2.80712635e-01],
       [ 3.54001836e-01,  3.01596828e-01,  1.12701849e-01,
        -5.80474529e-02,  7.34014584e-01,  6.97562240e-01,
         3.52224201e-01,  4.61991705e-02, -4.24421067e-01,
        -5.83693223e-02,  3.71978100e-01,  2.52368093e-01,
        -9.46217042e-01,  6.16295264e-01, -2.52932651e-01,
        -5.26202317e-01],
       [ 4.07993456e-01,  5.60723857e-01, -8.77839351e-02,
        -4.47666256e-01, -1.02937125e+00,  5.24362950e-01,
         3.59799494e-01,  2.82900695e-01,  9.29272166e-01,
        -1.44324531e-01, -4.46765335e-01,  3.82968302e-01,
         2.73730388e-01,  5.15282533e-01, -3.00089090e-01,
         4.35889806e-01],
       [ 9.11225510e-01,  2.66571428e-01,  2.71514838e-02,
         2.26133703e-01,  6.55564733e-01,  4.88010270e-02,
        -1.23600051e-01,  1.53923947e-01, -6.43933693e-01,
         2.12124448e-01, -5.63424016e-01, -1.67204341e-01,
         3.31784044e-02, -2.83552313e-02, -1.64924688e-01,
        -4.81176686e-01],
       [ 5.20396415e-02, -4.50386371e-01,  6.45272374e-01,
        -5.64077618e-01, -4.46731247e-01,  3.68851158e-01,
         1.09421679e-01, -1.76717929e-01,  1.04253475e-01,
         2.37118652e-01,  5.79561080e-01, -3.60971424e-02,
         2.37411328e-01,  2.04282188e-01,  6.56650365e-02,
        -3.59552891e-01],
       [-2.80654842e-01, -2.02079027e-01, -5.46971576e-02,
        -9.33370010e-02,  5.16099342e-02, -1.97149831e-01,
         3.12779228e-01,  3.65998349e-01, -1.65541126e-01,
        -5.35614875e-01,  5.25220287e-02,  4.44189590e-01,
         1.85819326e-01, -3.44283120e-01,  2.74289588e-01,
        -9.03512849e-02]]), 'b': array([[ 0.09387446],
       [ 0.37923605],
       [ 0.19733434],
       [ 0.00317544],
       [ 0.01346602],
       [-0.03693123],
       [-0.023156  ],
       [-0.06297863],
       [-0.03411042],
       [ 0.11837662],
       [-0.74183193],
       [ 0.17538238],
       [ 0.38318393],
       [-0.14490466],
       [ 0.16139192],
       [ 0.27329535]])}, {'W': array([[-0.55091459,  0.3826734 , -0.07450981,  0.54374253, -0.53888039,
        -0.1173911 ,  0.16535349,  0.11666746, -0.11384227, -0.02474828,
         0.43262731, -0.53494982,  0.13067279, -0.74765376, -0.46638604,
        -0.04342184],
       [-0.16322078,  0.04617247, -0.13127674,  0.1194786 ,  0.63376827,
         0.12741226,  0.74880188, -0.08612836,  0.42220675,  0.07190808,
         0.27547296, -0.77637509, -0.23303417, -0.46993668,  0.4103804 ,
        -0.03105582],
       [-0.62497034,  0.66494449, -0.34267802,  0.03141628, -0.51594043,
        -0.15166401, -0.17484039,  0.48358915,  0.10565141,  0.26731661,
         0.26274506,  0.03216962, -0.82352055,  0.17564379, -0.33799529,
        -0.05368275],
       [ 0.04545829, -0.4011027 , -0.32957705, -0.26362634, -0.83016853,
         0.09642454, -0.03199456, -0.62603313, -0.14052259, -0.00977156,
        -0.13181196,  0.07706187, -0.93832419,  0.21000031, -0.7486653 ,
        -0.07169144],
       [ 0.29076867,  0.08133961,  0.82645061,  0.11658997, -0.34071784,
         0.27786411, -0.04789214, -0.10242226, -0.32772401,  0.86644526,
        -0.50642816, -0.92299161,  0.18335237,  0.55195714,  0.28209101,
         0.28653163],
       [-0.37185497,  0.78421145,  0.60162746, -0.42165581,  0.39576265,
         0.68557184, -0.87826069, -0.40036657,  0.34581443, -0.15296353,
        -0.44817589,  0.00417262,  0.58492914, -0.31644991, -0.2792649 ,
         0.57674518],
       [ 0.23994836, -0.04123687, -0.90424198, -0.13938567, -0.74906309,
        -0.20685405, -0.79993193,  0.15947013,  0.22504528, -0.03638067,
         1.22604767, -0.11415971,  0.01988416, -0.10377264,  0.294087  ,
        -0.04221547],
       [ 0.40372047, -0.14627497, -0.30167321,  0.39176667, -0.123657  ,
         0.31896648,  0.17782456,  0.5337995 , -0.17381118, -0.26245635,
        -0.35683707, -0.07223957,  0.0186827 ,  0.27712826, -0.69427525,
         0.36168029],
       [ 0.56623399, -0.16453554,  0.1428829 , -0.22513049, -0.0600346 ,
        -0.4341807 , -0.14975228, -0.07854822, -0.20569903, -0.2158691 ,
         0.0346458 , -0.54031803,  0.4030375 , -0.2168617 , -0.52593318,
        -0.00406835],
       [-0.24458165, -0.06729925, -0.07639423, -0.38851123, -0.26783764,
        -0.55329004, -0.39961255,  0.15649262,  0.36845346,  0.10099129,
         0.10941087, -1.01507625, -0.49618619,  0.24046854,  0.21308888,
         0.43085047],
       [-0.17447952, -0.44676494, -0.17416195,  0.25062589, -0.14706237,
        -0.61793243,  0.1198365 , -0.22108407, -0.32179306,  0.08100488,
        -0.04062525,  0.12100998, -0.08234563,  0.39215218, -0.27667079,
        -0.80148161],
       [-0.40992539, -0.30597389,  0.25941523, -0.15402628,  0.45073288,
         0.2699125 ,  0.16275261, -0.1976442 ,  0.57486262, -0.46720384,
         0.42642622,  0.00289395, -0.55288562,  0.61096926, -0.06749019,
         0.28937072],
       [-0.03170003, -0.12687346,  0.07901735, -0.39217874,  0.27075626,
        -0.12827267,  0.23810951, -0.1251709 , -0.25130147, -0.45641883,
        -0.23590709,  0.13746508, -0.07312312, -0.21446949, -0.22347711,
         0.02679263],
       [ 0.10116174,  0.27226401, -0.14428748,  0.15673738,  0.54171755,
         0.60928853,  0.49182464,  0.0668988 ,  0.53013351, -0.39060434,
        -0.07482251,  0.1976888 , -0.29432623,  0.50646254, -0.4772246 ,
        -0.61480955],
       [-0.19258911, -0.11139625,  0.01418357, -0.13107631, -0.16422712,
         0.49855271,  0.06824712,  0.08502303, -0.32016607,  0.17757041,
        -0.1815523 , -0.69408022,  0.03461062,  0.15007528, -0.40687278,
         0.5437088 ],
       [ 0.34325308, -0.82880809, -0.83154008, -0.52312806,  0.17451513,
        -0.05855345,  0.05498723, -0.18759858, -0.15499221,  0.00389889,
        -0.10902214,  0.08686318, -0.88134075,  0.41748071,  0.01787052,
         0.03692011]]), 'b': array([[ 5.41197899e-02],
       [-3.62461079e-02],
       [-7.79982572e-02],
       [-4.24763029e-03],
       [ 1.73152554e-01],
       [ 5.04868052e-01],
       [-5.82590481e-01],
       [ 2.96842156e-03],
       [-1.20279844e-01],
       [-1.51040622e-02],
       [ 2.47014725e-02],
       [-1.65796764e-01],
       [ 1.42330164e-04],
       [-7.59506091e-02],
       [-8.49762843e-02],
       [-1.38728334e-01]])}, {'W': array([[-0.13455641,  0.39420474, -0.84634456, -0.10055648, -0.55241811,
        -0.46667385,  0.55316676,  0.59072354, -0.07410523, -0.30303372,
         0.36941431,  0.37426704, -0.00593469,  0.25490953,  0.11591801,
         0.53612099]]), 'b': array([[-0.50257244]])}]